digraph Tree {
node [shape=box, style="filled, rounded", color="black", fontname=helvetica] ;
edge [fontname=helvetica] ;
0 [label="X[7] <= 0.39\ngini = 0.68\nsamples = 8992\nvalue = [915, 1463, 2660, 3954]", fillcolor="#d739e534"] ;
1 [label="X[8] <= 0.08\ngini = 0.62\nsamples = 5082\nvalue = [850, 1420, 2634, 178]", fillcolor="#399de555"] ;
0 -> 1 [labeldistance=2.5, labelangle=45, headlabel="True"] ;
2 [label="X[8] <= -0.47\ngini = 0.54\nsamples = 2435\nvalue = [850, 1401, 30, 154]", fillcolor="#47e53959"] ;
1 -> 2 ;
3 [label="gini = 0.09\nsamples = 815\nvalue = [777, 12, 0, 26]", fillcolor="#e58139f3"] ;
2 -> 3 ;
4 [label="gini = 0.26\nsamples = 1620\nvalue = [73, 1389, 30, 128]", fillcolor="#47e539d8"] ;
2 -> 4 ;
5 [label="X[3] <= -1.53\ngini = 0.03\nsamples = 2647\nvalue = [0, 19, 2604, 24]", fillcolor="#399de5fb"] ;
1 -> 5 ;
6 [label="gini = 0.0\nsamples = 9\nvalue = [0, 0, 0, 9]", fillcolor="#d739e5ff"] ;
5 -> 6 ;
7 [label="gini = 0.03\nsamples = 2638\nvalue = [0, 19, 2604, 15]", fillcolor="#399de5fc"] ;
5 -> 7 ;
8 [label="X[8] <= 0.38\ngini = 0.07\nsamples = 3910\nvalue = [65, 43, 26, 3776]", fillcolor="#d739e5f6"] ;
0 -> 8 [labeldistance=2.5, labelangle=-45, headlabel="False"] ;
9 [label="X[8] <= -0.25\ngini = 0.05\nsamples = 3884\nvalue = [65, 43, 0, 3776]", fillcolor="#d739e5f8"] ;
8 -> 9 ;
10 [label="gini = 0.52\nsamples = 133\nvalue = [57, 4, 0, 72]", fillcolor="#d739e532"] ;
9 -> 10 ;
11 [label="gini = 0.02\nsamples = 3751\nvalue = [8, 39, 0, 3704]", fillcolor="#d739e5fc"] ;
9 -> 11 ;
12 [label="gini = 0.0\nsamples = 26\nvalue = [0, 0, 26, 0]", fillcolor="#399de5ff"] ;
8 -> 12 ;
}