digraph Tree {
node [shape=box, style="filled, rounded", color="black", fontname=helvetica] ;
edge [fontname=helvetica] ;
0 [label="X[7] <= 0.12\ngini = 0.72\nsamples = 8992\nvalue = [918, 1462, 2670, 3541, 401]", fillcolor="#e4e4fb"] ;
1 [label="X[6] <= 0.74\ngini = 0.61\nsamples = 6322\nvalue = [918, 1445, 44, 3514, 401]", fillcolor="#acabf4"] ;
0 -> 1 [labeldistance=2.5, labelangle=45, headlabel="True"] ;
2 [label="X[7] <= -0.23\ngini = 0.59\nsamples = 2642\nvalue = [893, 1434, 44, 176, 95]", fillcolor="#d6f7c2"] ;
1 -> 2 ;
3 [label="X[7] <= -1.19\ngini = 0.16\nsamples = 927\nvalue = [846, 39, 1, 41, 0]", fillcolor="#e78d4b"] ;
2 -> 3 ;
4 [label="gini = 0.0\nsamples = 706\nvalue = [706, 0, 0, 0, 0]", fillcolor="#e58139"] ;
3 -> 4 ;
5 [label="X[4] <= 184.13\ngini = 0.53\nsamples = 221\nvalue = [140, 39, 1, 41, 0]", fillcolor="#f1ba92"] ;
3 -> 5 ;
6 [label="gini = 0.37\nsamples = 155\nvalue = [120, 27, 0, 8, 0]", fillcolor="#eca36f"] ;
5 -> 6 ;
7 [label="gini = 0.62\nsamples = 66\nvalue = [20, 12, 1, 33, 0]", fillcolor="#c8c7f8"] ;
5 -> 7 ;
8 [label="X[6] <= 0.4\ngini = 0.33\nsamples = 1715\nvalue = [47, 1395, 43, 135, 95]", fillcolor="#96ea61"] ;
2 -> 8 ;
9 [label="X[1] <= -9.9\ngini = 0.25\nsamples = 1590\nvalue = [47, 1370, 43, 89, 41]", fillcolor="#8ee956"] ;
8 -> 9 ;
10 [label="gini = 0.68\nsamples = 93\nvalue = [36, 27, 2, 1, 27]", fillcolor="#fbeee4"] ;
9 -> 10 ;
11 [label="gini = 0.19\nsamples = 1497\nvalue = [11, 1343, 41, 88, 14]", fillcolor="#89e84f"] ;
9 -> 11 ;
12 [label="X[2] <= 5.82\ngini = 0.64\nsamples = 125\nvalue = [0, 25, 0, 46, 54]", fillcolor="#fcebf9"] ;
8 -> 12 ;
13 [label="gini = 0.61\nsamples = 91\nvalue = [0, 17, 0, 46, 28]", fillcolor="#c7c6f8"] ;
12 -> 13 ;
14 [label="gini = 0.36\nsamples = 34\nvalue = [0, 8, 0, 0, 26]", fillcolor="#ed76d3"] ;
12 -> 14 ;
15 [label="X[6] <= 1.89\ngini = 0.17\nsamples = 3680\nvalue = [25, 11, 0, 3338, 306]", fillcolor="#504de8"] ;
1 -> 15 ;
16 [label="X[7] <= -0.03\ngini = 0.53\nsamples = 510\nvalue = [17, 11, 0, 294, 188]", fillcolor="#bfbef6"] ;
15 -> 16 ;
17 [label="X[7] <= -0.25\ngini = 0.29\nsamples = 137\nvalue = [17, 4, 0, 114, 2]", fillcolor="#615fea"] ;
16 -> 17 ;
18 [label="gini = 0.0\nsamples = 14\nvalue = [14, 0, 0, 0, 0]", fillcolor="#e58139"] ;
17 -> 18 ;
19 [label="gini = 0.14\nsamples = 123\nvalue = [3, 4, 0, 114, 2]", fillcolor="#4b48e7"] ;
17 -> 19 ;
20 [label="X[7] <= 0.01\ngini = 0.52\nsamples = 373\nvalue = [0, 7, 0, 180, 186]", fillcolor="#fef9fd"] ;
16 -> 20 ;
21 [label="gini = 0.49\nsamples = 271\nvalue = [0, 6, 0, 98, 167]", fillcolor="#f5b0e6"] ;
20 -> 21 ;
22 [label="gini = 0.32\nsamples = 102\nvalue = [0, 1, 0, 82, 19]", fillcolor="#6b69eb"] ;
20 -> 22 ;
23 [label="X[7] <= -1.42\ngini = 0.08\nsamples = 3170\nvalue = [8, 0, 0, 3044, 118]", fillcolor="#4441e6"] ;
15 -> 23 ;
24 [label="gini = 0.0\nsamples = 8\nvalue = [8, 0, 0, 0, 0]", fillcolor="#e58139"] ;
23 -> 24 ;
25 [label="X[1] <= -9.75\ngini = 0.07\nsamples = 3162\nvalue = [0, 0, 0, 3044, 118]", fillcolor="#4441e6"] ;
23 -> 25 ;
26 [label="gini = 0.25\nsamples = 487\nvalue = [0, 0, 0, 417, 70]", fillcolor="#5d5ae9"] ;
25 -> 26 ;
27 [label="gini = 0.04\nsamples = 2675\nvalue = [0, 0, 0, 2627, 48]", fillcolor="#403de5"] ;
25 -> 27 ;
28 [label="X[2] <= -3.41\ngini = 0.03\nsamples = 2670\nvalue = [0, 17, 2626, 27, 0]", fillcolor="#3ce5c6"] ;
0 -> 28 [labeldistance=2.5, labelangle=-45, headlabel="False"] ;
29 [label="X[0] <= 1.3\ngini = 0.49\nsamples = 23\nvalue = [0, 0, 10, 13, 0]", fillcolor="#d2d1f9"] ;
28 -> 29 ;
30 [label="gini = 0.0\nsamples = 11\nvalue = [0, 0, 0, 11, 0]", fillcolor="#3c39e5"] ;
29 -> 30 ;
31 [label="X[2] <= -8.78\ngini = 0.28\nsamples = 12\nvalue = [0, 0, 10, 2, 0]", fillcolor="#61ead1"] ;
29 -> 31 ;
32 [label="gini = 0.0\nsamples = 2\nvalue = [0, 0, 0, 2, 0]", fillcolor="#3c39e5"] ;
31 -> 32 ;
33 [label="gini = 0.0\nsamples = 10\nvalue = [0, 0, 10, 0, 0]", fillcolor="#39e5c5"] ;
31 -> 33 ;
34 [label="X[5] <= 0.37\ngini = 0.02\nsamples = 2647\nvalue = [0, 17, 2616, 14, 0]", fillcolor="#3be5c6"] ;
28 -> 34 ;
35 [label="X[3] <= -0.99\ngini = 0.01\nsamples = 2531\nvalue = [0, 1, 2520, 10, 0]", fillcolor="#3ae5c5"] ;
34 -> 35 ;
36 [label="X[6] <= 0.15\ngini = 0.49\nsamples = 12\nvalue = [0, 0, 7, 5, 0]", fillcolor="#c6f8ee"] ;
35 -> 36 ;
37 [label="gini = 0.0\nsamples = 5\nvalue = [0, 0, 0, 5, 0]", fillcolor="#3c39e5"] ;
36 -> 37 ;
38 [label="gini = 0.0\nsamples = 7\nvalue = [0, 0, 7, 0, 0]", fillcolor="#39e5c5"] ;
36 -> 38 ;
39 [label="X[6] <= 0.13\ngini = 0.0\nsamples = 2519\nvalue = [0, 1, 2513, 5, 0]", fillcolor="#39e5c5"] ;
35 -> 39 ;
40 [label="gini = 0.0\nsamples = 2480\nvalue = [0, 1, 2479, 0, 0]", fillcolor="#39e5c5"] ;
39 -> 40 ;
41 [label="gini = 0.22\nsamples = 39\nvalue = [0, 0, 34, 5, 0]", fillcolor="#56e9ce"] ;
39 -> 41 ;
42 [label="X[4] <= 2.36\ngini = 0.29\nsamples = 116\nvalue = [0, 16, 96, 4, 0]", fillcolor="#61ead1"] ;
34 -> 42 ;
43 [label="X[2] <= -0.51\ngini = 0.44\nsamples = 24\nvalue = [0, 16, 8, 0, 0]", fillcolor="#bdf29c"] ;
42 -> 43 ;
44 [label="gini = 0.0\nsamples = 5\nvalue = [0, 0, 5, 0, 0]", fillcolor="#39e5c5"] ;
43 -> 44 ;
45 [label="gini = 0.27\nsamples = 19\nvalue = [0, 16, 3, 0, 0]", fillcolor="#94ea5e"] ;
43 -> 45 ;
46 [label="X[2] <= -1.33\ngini = 0.08\nsamples = 92\nvalue = [0, 0, 88, 4, 0]", fillcolor="#42e6c8"] ;
42 -> 46 ;
47 [label="gini = 0.0\nsamples = 1\nvalue = [0, 0, 0, 1, 0]", fillcolor="#3c39e5"] ;
46 -> 47 ;
48 [label="gini = 0.06\nsamples = 91\nvalue = [0, 0, 88, 3, 0]", fillcolor="#40e6c7"] ;
46 -> 48 ;
}