digraph Tree {
node [shape=box, style="filled, rounded", color="black", fontname=helvetica] ;
edge [fontname=helvetica] ;
0 [label="X[7] <= 0.12\ngini = 0.72\nsamples = 8992\nvalue = [918, 1462, 2670, 3541, 401]", fillcolor="#e4e4fb"] ;
1 [label="X[6] <= 0.74\ngini = 0.61\nsamples = 6322\nvalue = [918, 1445, 44, 3514, 401]", fillcolor="#acabf4"] ;
0 -> 1 [labeldistance=2.5, labelangle=45, headlabel="True"] ;
2 [label="X[7] <= -0.23\ngini = 0.59\nsamples = 2642\nvalue = [893, 1434, 44, 176, 95]", fillcolor="#d6f7c2"] ;
1 -> 2 ;
3 [label="X[7] <= -1.19\ngini = 0.16\nsamples = 927\nvalue = [846, 39, 1, 41, 0]", fillcolor="#e78d4b"] ;
2 -> 3 ;
4 [label="gini = 0.0\nsamples = 706\nvalue = [706, 0, 0, 0, 0]", fillcolor="#e58139"] ;
3 -> 4 ;
5 [label="gini = 0.53\nsamples = 221\nvalue = [140, 39, 1, 41, 0]", fillcolor="#f1ba92"] ;
3 -> 5 ;
6 [label="X[6] <= 0.4\ngini = 0.33\nsamples = 1715\nvalue = [47, 1395, 43, 135, 95]", fillcolor="#96ea61"] ;
2 -> 6 ;
7 [label="gini = 0.25\nsamples = 1590\nvalue = [47, 1370, 43, 89, 41]", fillcolor="#8ee956"] ;
6 -> 7 ;
8 [label="gini = 0.64\nsamples = 125\nvalue = [0, 25, 0, 46, 54]", fillcolor="#fcebf9"] ;
6 -> 8 ;
9 [label="X[6] <= 1.89\ngini = 0.17\nsamples = 3680\nvalue = [25, 11, 0, 3338, 306]", fillcolor="#504de8"] ;
1 -> 9 ;
10 [label="X[7] <= -0.03\ngini = 0.53\nsamples = 510\nvalue = [17, 11, 0, 294, 188]", fillcolor="#bfbef6"] ;
9 -> 10 ;
11 [label="gini = 0.29\nsamples = 137\nvalue = [17, 4, 0, 114, 2]", fillcolor="#615fea"] ;
10 -> 11 ;
12 [label="gini = 0.52\nsamples = 373\nvalue = [0, 7, 0, 180, 186]", fillcolor="#fef9fd"] ;
10 -> 12 ;
13 [label="X[7] <= -1.42\ngini = 0.08\nsamples = 3170\nvalue = [8, 0, 0, 3044, 118]", fillcolor="#4441e6"] ;
9 -> 13 ;
14 [label="gini = 0.0\nsamples = 8\nvalue = [8, 0, 0, 0, 0]", fillcolor="#e58139"] ;
13 -> 14 ;
15 [label="gini = 0.07\nsamples = 3162\nvalue = [0, 0, 0, 3044, 118]", fillcolor="#4441e6"] ;
13 -> 15 ;
16 [label="X[2] <= -3.41\ngini = 0.03\nsamples = 2670\nvalue = [0, 17, 2626, 27, 0]", fillcolor="#3ce5c6"] ;
0 -> 16 [labeldistance=2.5, labelangle=-45, headlabel="False"] ;
17 [label="X[3] <= -1.5\ngini = 0.49\nsamples = 23\nvalue = [0, 0, 10, 13, 0]", fillcolor="#d2d1f9"] ;
16 -> 17 ;
18 [label="X[2] <= -8.78\ngini = 0.28\nsamples = 12\nvalue = [0, 0, 10, 2, 0]", fillcolor="#61ead1"] ;
17 -> 18 ;
19 [label="gini = 0.0\nsamples = 2\nvalue = [0, 0, 0, 2, 0]", fillcolor="#3c39e5"] ;
18 -> 19 ;
20 [label="gini = 0.0\nsamples = 10\nvalue = [0, 0, 10, 0, 0]", fillcolor="#39e5c5"] ;
18 -> 20 ;
21 [label="gini = 0.0\nsamples = 11\nvalue = [0, 0, 0, 11, 0]", fillcolor="#3c39e5"] ;
17 -> 21 ;
22 [label="X[5] <= 0.37\ngini = 0.02\nsamples = 2647\nvalue = [0, 17, 2616, 14, 0]", fillcolor="#3be5c6"] ;
16 -> 22 ;
23 [label="X[3] <= -0.99\ngini = 0.01\nsamples = 2531\nvalue = [0, 1, 2520, 10, 0]", fillcolor="#3ae5c5"] ;
22 -> 23 ;
24 [label="gini = 0.49\nsamples = 12\nvalue = [0, 0, 7, 5, 0]", fillcolor="#c6f8ee"] ;
23 -> 24 ;
25 [label="gini = 0.0\nsamples = 2519\nvalue = [0, 1, 2513, 5, 0]", fillcolor="#39e5c5"] ;
23 -> 25 ;
26 [label="X[4] <= 2.36\ngini = 0.29\nsamples = 116\nvalue = [0, 16, 96, 4, 0]", fillcolor="#61ead1"] ;
22 -> 26 ;
27 [label="gini = 0.44\nsamples = 24\nvalue = [0, 16, 8, 0, 0]", fillcolor="#bdf29c"] ;
26 -> 27 ;
28 [label="gini = 0.08\nsamples = 92\nvalue = [0, 0, 88, 4, 0]", fillcolor="#42e6c8"] ;
26 -> 28 ;
}